-4.653095453977584839e-02,1.779101975262165070e-02,-5.353561043739318848e-02,-3.453279659152030945e-02,-5.356784909963607788e-02,-3.135319352149963379e-01,-3.066999912261962891e-01,4.727884829044342041e-01
-1.387812942266464233e-02,-1.208140142261981964e-02,-2.769286371767520905e-02,7.614793628454208374e-02,-1.733850687742233276e-02,1.647889846935868263e-03,-5.063810572028160095e-02,1.896937959827482700e-03
-9.105863422155380249e-02,-7.818707078695297241e-02,-5.910407379269599915e-02,2.692343294620513916e-02,1.096837595105171204e-01,7.289531081914901733e-02,1.018173713237047195e-02,-1.811618916690349579e-02
4.799599945545196533e-02,3.080230019986629486e-02,6.545288860797882080e-02,8.789687603712081909e-02,1.883177831768989563e-02,-3.096167147159576416e-01,-2.697986066341400146e-01,4.385416805744171143e-01
-1.515109371393918991e-02,1.245055114850401878e-03,-1.396032888442277908e-02,-4.435219243168830872e-02,5.236699059605598450e-02,-3.932049125432968140e-02,-7.158610224723815918e-02,-4.488429054617881775e-02
2.338775806128978729e-02,4.607501998543739319e-02,-3.167459368705749512e-02,-3.442381322383880615e-02,-7.889540493488311768e-02,-3.838869556784629822e-02,9.147735685110092163e-02,5.060690641403198242e-02
2.280264906585216522e-02,8.318004757165908813e-02,8.140204101800918579e-02,4.025449976325035095e-02,-2.452152967453002930e-02,-3.215921670198440552e-02,-1.773065142333507538e-02,-5.725647136569023132e-02
-1.783267222344875336e-02,-6.058130413293838501e-02,-7.164897769689559937e-02,-7.303699851036071777e-02,-6.553273648023605347e-03,2.947036623954772949e-01,2.669333219528198242e-01,-1.732807233929634094e-02
