-3.214160725474357605e-02,1.098111942410469055e-01,1.686007529497146606e-01,2.565129995346069336e-01,1.308741569519042969e-01,1.538873557001352310e-02,1.690685898065567017e-01,-5.041400343179702759e-02
7.912813685834407806e-03,3.802529349923133850e-02,2.051683329045772552e-02,-5.755970999598503113e-02,3.039041161537170410e-02,2.656836248934268951e-02,3.271170333027839661e-02,1.144522801041603088e-02
-3.297781944274902344e-01,4.255915284156799316e-01,3.335226774215698242e-01,4.504512548446655273e-01,2.637242376804351807e-01,-4.637732505798339844e-01,3.905766308307647705e-01,-5.542619153857231140e-02
3.934801518917083740e-01,-1.921577006578445435e-01,-2.479712814092636108e-01,-2.282089740037918091e-01,-2.083013206720352173e-01,3.481243848800659180e-01,-2.580415904521942139e-01,2.460330538451671600e-02
3.134552836418151855e-01,-3.329150080680847168e-01,-2.150993794202804565e-01,-1.916261315345764160e-01,-1.695803999900817871e-01,3.818201124668121338e-01,-3.570165336132049561e-01,-3.115234710276126862e-02
-2.444102466106414795e-01,1.801342070102691650e-01,1.637883782386779785e-01,2.787388861179351807e-01,2.716298699378967285e-01,-2.360535711050033569e-01,2.077610045671463013e-01,4.889213666319847107e-02
1.346074789762496948e-01,1.469103246927261353e-01,7.467389106750488281e-02,1.023072004318237305e-01,1.229407563805580139e-01,1.367866098880767822e-01,1.433150172233581543e-01,2.294231206178665161e-02
1.755268871784210205e-01,1.579964999109506607e-03,2.883068844676017761e-02,-7.736337184906005859e-02,-4.921196028590202332e-02,2.414505928754806519e-01,2.988336794078350067e-02,-7.040506601333618164e-02
