-2.017702162265777588e-02,2.982479706406593323e-02,4.356473218649625778e-03,-1.132069062441587448e-02,1.029303669929504395e-01,3.448972105979919434e-02,-9.970385581254959106e-02,8.175652474164962769e-02
2.087834849953651428e-02,1.111043803393840790e-02,-1.217662692070007324e-01,7.782944291830062866e-02,-4.114728793501853943e-02,1.324536558240652084e-02,7.057581096887588501e-02,5.527738481760025024e-02
-1.231633797287940979e-01,9.477688930928707123e-03,-3.791445121169090271e-02,-5.360640957951545715e-02,-1.079137325286865234e-01,4.457835480570793152e-02,-3.186816116794943810e-03,-9.738444536924362183e-02
7.386022806167602539e-01,-4.018981382250785828e-02,3.105884976685047150e-02,-1.234379336237907410e-01,-3.213308751583099365e-02,-6.726605817675590515e-03,-6.139534991234540939e-03,-4.970705881714820862e-02
7.101063132286071777e-01,-2.011954784393310547e-03,-7.146492600440979004e-02,7.559628784656524658e-02,-5.754748731851577759e-02,7.479184865951538086e-02,2.760187536478042603e-02,-4.170333221554756165e-02
4.749630019068717957e-02,-7.027795165777206421e-02,5.968791246414184570e-02,1.092854663729667664e-01,-5.779724940657615662e-02,5.506274104118347168e-02,4.217143636196851730e-03,2.456310577690601349e-02
7.134439349174499512e-01,-4.564428329467773438e-02,2.253129845485091209e-03,-4.048068821430206299e-02,-8.398496359586715698e-02,1.777134090662002563e-02,2.142949774861335754e-02,2.047790028154850006e-02
7.805436253547668457e-01,2.815438061952590942e-02,1.124592963606119156e-02,-1.736184209585189819e-02,-4.001619759947061539e-03,-9.232622385025024414e-02,-4.651017114520072937e-02,-3.861002251505851746e-02
