4.874213133007287979e-03,1.836887933313846588e-02,-3.619923442602157593e-02,4.512153863906860352e-01,5.415562391281127930e-01,-4.268140718340873718e-02,4.665793478488922119e-01,5.272033214569091797e-01
-6.336761265993118286e-02,-2.753585390746593475e-02,-3.781240375246852636e-04,4.030048251152038574e-01,4.800719320774078369e-01,-9.590649977326393127e-03,4.870136678218841553e-01,5.944048762321472168e-01
2.112854272127151489e-02,-1.053937301039695740e-01,1.749729551374912262e-02,5.668386220932006836e-01,6.936510801315307617e-01,4.899131134152412415e-02,7.792237401008605957e-01,6.013224720954895020e-01
3.876543417572975159e-02,-5.925244092941284180e-02,-1.167951244860887527e-02,5.956786870956420898e-01,6.682101488113403320e-01,1.082101371139287949e-02,7.312293648719787598e-01,7.912768125534057617e-01
4.013521224260330200e-02,7.769385818392038345e-03,-5.677842535078525543e-03,1.296560287475585938e+00,1.373280048370361328e+00,2.692193083930760622e-04,1.471843361854553223e+00,1.467494249343872070e+00
-9.501033462584018707e-03,-2.114845812320709229e-02,-5.675425752997398376e-03,5.274217724800109863e-01,5.515122413635253906e-01,-8.967786282300949097e-02,5.548239946365356445e-01,5.626880526542663574e-01
-5.290462076663970947e-02,-3.541988506913185120e-02,3.262383630499243736e-03,5.747553110122680664e-01,6.106668710708618164e-01,-8.736318908631801605e-03,6.113581061363220215e-01,5.857543349266052246e-01
