4.454254209995269775e-01,-3.680337965488433838e-01,4.988256692886352539e-01,4.285753667354583740e-01,-2.068497054278850555e-02,5.515775829553604126e-02,2.753435075283050537e-01,5.652088671922683716e-02
1.855420470237731934e-01,-1.558399051427841187e-01,1.701353490352630615e-01,1.037827581167221069e-01,7.064595073461532593e-02,-1.654528663493692875e-03,2.694754116237163544e-02,-2.042763121426105499e-02
-6.657837424427270889e-03,1.332282423973083496e-01,-1.359249800443649292e-01,-9.740507602691650391e-02,1.177499443292617798e-01,-5.293727666139602661e-02,-1.113031134009361267e-01,9.005341416923329234e-05
8.479375392198562622e-03,-3.510735929012298584e-02,-6.922047585248947144e-02,-6.453008949756622314e-02,2.727733924984931946e-02,-4.942136257886886597e-02,-5.086632445454597473e-02,-1.011170148849487305e-01
1.031974889338016510e-02,2.342698350548744202e-02,-5.416659172624349594e-03,1.008579414337873459e-02,-7.204873859882354736e-02,-3.086547926068305969e-02,1.600335165858268738e-02,1.885376311838626862e-02
3.681198060512542725e-01,-3.383617699146270752e-01,3.071098029613494873e-01,4.104995429515838623e-01,5.246357247233390808e-02,3.695237264037132263e-02,1.475607156753540039e-01,3.904192149639129639e-02
5.155841708183288574e-01,-4.797672331333160400e-01,4.094639122486114502e-01,4.592655301094055176e-01,6.031690910458564758e-02,5.455501750111579895e-02,4.031612724065780640e-02,1.345889419317245483e-01
