1.148569360375404358e-01,7.844783365726470947e-02,-7.002340164035558701e-03,7.597711682319641113e-02,6.171331927180290222e-02,1.165372431278228760e-01,-4.088348895311355591e-02,2.360181137919425964e-02
2.580559067428112030e-02,-1.777599900960922241e-01,-5.535118281841278076e-03,-4.648305475711822510e-02,-1.209310255944728851e-02,-7.955031096935272217e-02,1.343022882938385010e-01,1.604377776384353638e-01
-1.852386817336082458e-02,1.833224296569824219e-01,-6.857112795114517212e-02,1.880012005567550659e-01,6.311445683240890503e-02,4.544801265001296997e-02,-5.701699107885360718e-02,-1.333196461200714111e-01
6.431857496500015259e-02,1.762596815824508667e-01,8.255345374345779419e-02,1.492754369974136353e-01,-1.718101650476455688e-01,1.244696825742721558e-01,-1.334692072123289108e-02,-1.658553332090377808e-01
9.538513608276844025e-03,-2.229449525475502014e-02,1.946930401027202606e-02,-5.210948176681995392e-03,-1.470761187374591827e-02,5.159173533320426941e-02,8.959760516881942749e-02,3.469605371356010437e-02
-2.194265276193618774e-02,6.701742112636566162e-02,3.295177221298217773e-02,6.398900598287582397e-02,-1.509970147162675858e-02,6.840558350086212158e-02,-4.163910448551177979e-02,1.376556605100631714e-02
-8.063139393925666809e-03,-1.701316609978675842e-02,-3.572959825396537781e-02,-9.847121313214302063e-03,3.135452419519424438e-02,2.500040270388126373e-02,1.417238730937242508e-02,-2.045427262783050537e-02
9.279091656208038330e-02,6.225671991705894470e-02,-1.607102751731872559e-01,1.571608893573284149e-02,-5.987911298871040344e-02,1.746854558587074280e-02,8.939670026302337646e-02,-1.490307971835136414e-02
