2.607360184192657471e-01,2.726651728153228760e-01,-2.008378319442272186e-02,-1.078969612717628479e-01,-5.099605396389961243e-02,-4.045386798679828644e-03,2.916653156280517578e-01,-1.399518102407455444e-01
-1.807174063287675381e-03,1.814520359039306641e-02,-6.084289774298667908e-02,-4.954903200268745422e-02,-4.709785431623458862e-02,-2.830681204795837402e-02,1.957697793841362000e-03,7.950262725353240967e-02
-4.151913896203041077e-02,-1.009119767695665359e-02,-6.098916009068489075e-02,-3.871129127219319344e-03,-7.754074875265359879e-03,2.738976851105690002e-02,-3.962932154536247253e-02,6.308198720216751099e-02
-3.992180526256561279e-02,4.937834665179252625e-02,5.983850359916687012e-02,7.343012094497680664e-02,-6.985250115394592285e-02,5.680497363209724426e-02,4.775014147162437439e-02,-3.943535685539245605e-02
-7.165890652686357498e-03,-1.941221707966178656e-04,1.498965430073440075e-03,9.061729162931442261e-02,-3.865973278880119324e-02,2.008815668523311615e-02,1.717378385365009308e-02,-3.430577367544174194e-02
-1.037869453430175781e-01,1.569711416959762573e-02,1.408428302966058254e-03,6.391107290983200073e-02,-3.691659495234489441e-02,-1.122143641114234924e-01,1.791680045425891876e-02,-2.574228681623935699e-02
-2.301772125065326691e-02,-1.452108472585678101e-01,-9.849871508777141571e-03,-3.595434501767158508e-02,1.633074693381786346e-02,3.279991075396537781e-02,-9.329016320407390594e-03,-6.463735550642013550e-02
2.927139699459075928e-01,3.428771793842315674e-01,-3.984174982178956270e-04,-1.564009487628936768e-01,4.791445657610893250e-02,-2.465268969535827637e-02,3.054036796092987061e-01,-6.236199662089347839e-02
