-5.922788381576538086e-02,5.996447522193193436e-03,7.268255949020385742e-02,-3.317941725254058838e-02,-1.210790965706110001e-02,-7.117821276187896729e-02,2.995667420327663422e-02,1.109012737870216370e-01
3.249851986765861511e-02,-6.876583397388458252e-02,-1.905508786439895630e-01,1.139518246054649353e-02,5.142679065465927124e-02,8.288907259702682495e-02,-2.949476614594459534e-02,1.329032182693481445e-01
4.159310758113861084e-01,4.153530597686767578e-01,3.885553777217864990e-01,3.932870328426361084e-01,3.778143227100372314e-01,-4.940480366349220276e-02,3.821522593498229980e-01,-3.479591310024261475e-01
4.154916852712631226e-02,-1.158935111016035080e-02,3.646524623036384583e-02,-3.077735006809234619e-02,4.533742740750312805e-02,7.629758212715387344e-03,-2.882022969424724579e-02,9.660723619163036346e-03
-1.245620101690292358e-02,-1.536043286323547363e-01,-1.119512766599655151e-01,6.493252702057361603e-03,-4.257049039006233215e-02,7.637636363506317139e-02,-9.530965238809585571e-02,1.409186124801635742e-01
-4.229160025715827942e-02,3.150200936943292618e-03,-1.818975247442722321e-02,3.288518637418746948e-02,-3.668168187141418457e-02,-3.751945123076438904e-02,-2.626216039061546326e-02,1.175390779972076416e-01
8.346438407897949219e-02,3.695815801620483398e-02,2.645853534340858459e-02,-2.230181731283664703e-02,3.274632990360260010e-02,-4.585185274481773376e-02,-2.894168719649314880e-03,1.940466314554214478e-01
1.765098422765731812e-02,9.459417313337326050e-02,2.206306159496307373e-02,-3.099924139678478241e-02,-1.115583535283803940e-02,-4.945439286530017853e-03,1.901738531887531281e-02,-5.183495208621025085e-02
